{"layers":[{"nodes":[{"weights":[],"value":0.0,"error":-0.0},{"weights":[],"value":1.0,"error":0.0},{"weights":[],"value":1.0,"error":-0.0},{"weights":[],"value":1.0,"error":0.0},{"weights":[],"value":0.0,"error":-0.0},{"weights":[],"value":1.0,"error":0.0},{"weights":[],"value":0.0,"error":-0.0}],"size":7},{"nodes":[{"weights":[-5.009738531150439,1.2729541450769954,-0.16706836959039284,1.7409157204304828,3.7274041938606643,2.2819796289974166,-1.9832178246910437],"value":0.9941110911936297,"error":7.2029064883157755E-6},{"weights":[1.2090747332361893,1.0091926714899033,-7.190157829841464,0.2838870634819653,-1.6722524040938789,0.3014445680131839,0.8436749934746197],"value":0.003700296021069987,"error":4.42732363704316E-6},{"weights":[1.6136332503265198,-3.0685600438354514,4.803563712742465,-2.011958988179901,0.6550900586389056,-0.5501158483190288,1.1756300130113546],"value":0.3043197051183955,"error":-6.494239878184229E-4},{"weights":[-1.172165817997049,-0.4525854071545937,0.1501062841200663,4.215479846360772,-4.79118610444114,-1.1234599883136276,1.419614857829789],"value":0.9421035884344643,"error":2.0226558474924225E-4},{"weights":[-1.1670072118424728,4.839484480852481,-2.6931532157004145,3.958875698641114,-1.7947551917795521,0.2774198791403849,-0.9776047747112226],"value":0.9983121742592299,"error":4.930946574498071E-6},{"weights":[-1.38761347468105,-0.04819200304066029,0.2702727601189018,-1.4389627017641373,6.0716018038634045,-0.48816140580477624,-0.01219865216761878],"value":0.1538119557208365,"error":-8.132644626288511E-5},{"weights":[-0.6745750875729029,-4.79281312010412,2.95205540432785,0.4218067136202661,-0.9186378901982781,1.9286402764068553,-2.5653760623680486],"value":0.6247097440643609,"error":2.547107149337522E-4},{"weights":[0.6487694657298977,4.144325654979594,-1.2239720205907447,-4.030317473002429,-2.3731992958990062,2.796749742814135,-1.1524067128586848],"value":0.843783187748394,"error":3.3798406503273196E-4},{"weights":[4.8699055442551185,-1.5601779992510219,-1.316685294212566,-0.17554158796358615,-0.9784762345453503,-1.1592728162086208,1.263793815827616],"value":0.014605034791470926,"error":-3.687315118518544E-6}],"size":9},{"nodes":[{"weights":[-1.2944447353467428,-1.834028798959753,-0.24984404111637862,-5.814773765677762,-3.463039521061004,2.3663941259771795,-5.020765304203033,3.7391937258615613,-1.4981262921776868],"value":4.799780823737572E-5,"error":-2.3036790187406637E-9},{"weights":[1.7223132717376097,-1.1651482865522536,1.3795885060926116,-2.765112349624182,-3.8910776612897386,0.5670329759651775,2.4759780723575155,-0.9359910779447213,-6.923442855522153],"value":0.026122923765452756,"error":-6.645806762022443E-4},{"weights":[-2.683186184990726,-0.9353767213864393,0.5065004703174896,-1.3917728531642668,-4.7406225067041685,3.6053025509656935,-1.8883388782006325,-6.444835647863091,1.0060632990999132],"value":4.5226411808893164E-7,"error":-2.0454274000337536E-13},{"weights":[-3.257134646567107,-1.2788236015756673,0.5497921879694042,3.235183401391318,-2.6592990904583025,-5.43514974335708,1.2761244225950275,-5.23176259259235,-0.012369660506236018],"value":7.955005186469172E-4,"error":-6.323176656740077E-7},{"weights":[1.6132863989897128,-2.3262352831046886,-3.3365778084112026,1.4076948823880397,2.412369821539398,-2.510098577884776,-0.982157761875826,0.22376844776098365,-5.848708223131314],"value":0.9682509902472871,"error":9.759966305029254E-4},{"weights":[-4.125157953794851,7.149296938272641,-6.121554292719369,3.6015266699852515,-0.2147138925068734,-5.341953502681239,-0.9455350432943931,-0.06112304249308044,-0.9444407320159678],"value":0.014255025599762857,"error":-2.0030905161249002E-4},{"weights":[1.7563535833040185,0.9309166695502682,-7.293704035421258,-3.9553135953902787,0.31444522533017844,2.697617499681944,-1.5356553683121263,-0.8432639798980921,-0.3104930703048729],"value":0.00580606449281522,"error":-3.351466022595323E-5},{"weights":[-5.150919070235705,-0.3801372943185306,-0.6422947690926508,-5.1406042732809345,-3.22946115752842,-2.4247596365861317,2.758576298581908,1.6876066398246676,1.0101221371766869],"value":2.503106121796611E-5,"error":-6.265383423853934E-10},{"weights":[2.816866058892192,-5.73346083289289,0.4755783164311944,-3.6122887641720873,3.5039697941140227,-0.017608530830237192,-4.308890967975038,-4.999460557792398,-1.7278563160196987],"value":0.01946723855580617,"error":-3.715958118525285E-4},{"weights":[-3.524322999163391,-6.634237974816023,0.6138166237225233,0.8323103659664851,2.4390394672501823,-3.9638981275294336,-6.047163031729022,0.5812650993856033,-0.030291842292983328],"value":0.017644181283084752,"error":-3.058241972165231E-4}],"size":10}],"learningRate":0.1}